-0.055262763 -0.12197316 -0.3695392 -0.046221603 0.045168307 -0.20456085 0.3238803 -0.06994858 0.05348374 0.39575854 0.17022693 -0.15652102 0.0010192675 0.32418954 0.19732529 -0.7656649 0.16732405 -0.34497663 0.05182395 -0.9109213 -0.7018901 0.15045743 -0.48568928 -0.13370588 0.30452973 0.26488584 -0.11503551 0.24647297 -0.011961141 -0.6188777 0.16200508 -0.07631878 -0.33285353 0.019705934 -0.01023862 -0.16155465 0.14995658 -0.16454534 0.28576398 0.16847207 -0.12409523 0.47448987 -0.055818602 0.091770865 0.20145133 0.11517563 -0.060077574 -0.1599264 -0.42558986 -0.31105235 -0.10163315 -0.099595845 -0.53824514 0.26014674 0.6943452 -0.20354559 0.19791734 -0.23829067 0.025427034 -0.24671468 -0.5143289 0.18154997 0.45186067 0.3649086 0.07260124 0.36304334 -0.34658423 -0.53423125 -0.075948425 0.5844036 -0.07295572 -0.04302754 -0.055320743 -0.15675922 -0.020122623 0.4667669 0.016591715 -0.18052123 -0.35095504 -0.2156979 -0.5021049 0.5564089 -0.05915108 0.0050463392 -0.40470812 0.5557249 -0.07251583 -0.2873931 0.22550282 -0.094341256 0.42492113 -0.13329479 -0.44035965 0.533403 -0.0065487684 -0.38773426 0.047781147 0.43970814 0.44761056 -0.39413512 0.29336253 0.050256953 0.39186898 -0.039361335 -0.35468164 0.04066681 0.34892434 0.5824641 -0.18932375 0.076987766 0.36844653 0.23933893 -0.34945837 -0.69063234 0.5302634 -0.17628908 0.4265736 -0.17805275 -0.5945276 -0.081961714 0.91465324 -0.4643703 -0.262778 0.019068088 -0.12325534 -0.51848114 0.36672103 0.64953953 0.0952902 -0.038849726 -1.0373158 0.11287821 -0.06436862 0.10800006 0.06844523 -0.62315494 -0.5305608 0.51746356 -0.43654427 0.5764278 0.35617453 0.25020614 -0.7349777 0.019942582 0.88788784 -0.1419554 0.21589145 0.6210472 0.5390738 -0.82062596 0.1717615 -0.04932686 0.75680405 -0.30053785 -0.32774225 0.31239167 -0.63234895 -0.23588197 -0.6675005 -0.021059671 -0.32450044 0.08124804 0.2208884 -0.63497454 0.66456115 -0.39266035 -0.33747336 -0.19537872 -0.45836353 0.29718998 -0.0316273 0.5353901 0.35407782 -0.48814866 -0.44827923 0.23106405 -0.65254885 -0.1054091 -0.16602732 0.35940996 -0.69514 -0.8920846 -0.22397283 -0.1628312 -0.107103676 0.6864498 0.09463996 -0.36567488 0.43344676 -0.2357086 -0.78494406 0.17269903 1.018798 0.33394682 -0.10452637 0.05673323 -0.21203223 0.4830511 0.09045765 -0.08135857 0.61925656 -0.17108282 0.069113225 -0.09428505 -0.27492234 -0.75239545 0.20670146 0.34954536 0.021093532 0.3206076 -0.6101546 -0.39304963 -0.024268117 0.24444577 -0.170976 0.06668281 0.39603254 0.32235488 0.49012712 -0.0035724714 0.5205059 -0.03362121 0.5407253 -0.060276803 -0.2755797 0.92246073 0.88492364 -0.4393494 -0.0237056 -0.53715426 -0.76161313 0.4295065 -0.3778724 -0.84988135 0.21728061 -0.07402216 0.12535363 0.029092275 0.43897894 0.06535839 -0.25955755 0.09005061 -0.045969512 0.32493198 -0.4850829 0.276317 -0.14268123 -0.19076395 -0.7397575 0.44788736 0.015446441 0.55330956 1.0050212 -0.76695645 -0.21685559 0.24092203 -0.5459993 0.07008357 0.23504272 -0.18242773 -0.14315501 0.12706146 0.619663 -0.024348725 0.016536998 -0.33497435 0.054764796 0.068447776 -0.14370352 -0.0011124884 0.027930344 -0.42747816 -0.12738192 -0.03122176 0.027915535 -0.6269265 -0.308217 -0.24449447 0.9841825 -0.3737534 -0.25601423 -0.6101885 0.44302264 0.57427174 0.005774869 0.4015538 0.026612202 -0.037976507 -0.056259863 -0.35837653 0.29097608 -0.24276677 -0.08971595 -0.02898059 -0.15039538 0.21582454 0.19165014 -0.080781035 -0.24044861 0.34499866 0.23508267 0.33275405 0.11219221 0.30964735 -0.5281328 -0.15610187 -0.109457195 -0.12013171 0.21087098 0.06979813 -0.32778665 0.36551526 -0.44949123 -0.37122187 0.6029989 0.013791757 -0.040623892 -0.112195335 -0.14116772 0.052976575 0.12361707 -0.43407115 -0.31103843 -0.48632652 -0.18279316 0.4333255 -0.3739928 0.03525103 -0.67059666 -0.4961103 -0.7142449 0.74839556 -0.7558192 1.1265205 0.8485998 0.08899102 0.24493572 -0.17510517 0.10071339 0.03018341 -0.5139166 -0.43216425 0.24037953 -0.4059794 0.5362033 0.28637418 -0.024944834 -0.27979848 0.45021206 -0.0012455012 -0.22172377 0.27045888 0.42381626 0.045643453 0.20108625 0.30602717 -0.5355466 0.14597751 -0.7132738 0.5477875 -0.8905405 0.34662125 -0.8025501 -0.5948886 -0.0041179033 0.84695804 -0.28157115 0.31397322 0.36711556 -0.973846 0.4890958 0.2791836 0.57747644 -0.029170679 -0.0725761 0.04151442 0.39386883 0.07268518 -0.74662536 -0.5146371 -0.108956136 0.46953994 0.062307432 -0.022459546 0.348824 0.3216803 0.12793171 0.47007322 1.0429555 0.013436221 -0.016717266 0.083851546 -0.057215218 -0.21224338 0.0011958604 0.5269339 -0.029570257 0.5986213 -0.19902182 0.2196454 0.0718952 -0.34037974 0.32897878 0.40166122 0.27135882 0.4267946 0.17004018 -0.5868941 -0.35818797 -0.22097568 0.02876698 -0.85439867 0.30535823 0.34554276 -0.6818765 -0.83186257 -0.005485227 -0.42999592 0.04763971 0.48723263 0.5062728 0.20637812 0.14701174 0.52305317 -0.20483282 -0.7509513 -0.16896525 -0.39953223 0.14671624 1.0745249 0.46378902 -0.4809437 0.32440603 -0.41893968 -0.6783133 -0.80809826 -0.51500076 0.0866958 0.037111826 -0.37076065 -0.1415433 0.7794384 0.07429875 -0.2937919 -0.2648829 -0.25977364 0.23360671 0.14549898 0.34569013 -0.6527047 -0.4495568 0.0807509 -0.8139984 -0.253982 0.5417959 0.18431225 -0.3622715 0.03692892 -0.34029275 0.6074564 0.4059577 0.08792232 -0.04839921 0.14574654 0.010911761 -0.332069 -0.08352167 -0.21718766 0.033814333 -0.67854726 -0.15603895 0.23598509 -0.13924707 0.11336316 -0.33288977 0.04968118 -0.11554186 0.09416761 0.25219777 -0.019418396 0.20631644 -0.064745024 0.024476752 0.45385417 -0.23999077 0.39833605 -0.28001168 0.00936458 -0.15902327 0.04101348 0.051914047 0.039454795 -0.19861355 -0.119796 -0.019803608 -0.10649354 -0.019067425 -0.16161026 0.09957953 -0.5033652 -0.54935604 0.3536997 -0.45326176 0.3289467 -0.33746392 0.30315998 0.24647117 -0.025826938 -0.0027241674 -0.03285219 0.058873914 -0.16119389 -0.17916855 0.10692183 0.09443386 -0.114905715 0.067682415 0.086193144 0.012195436 -0.0864637 0.09674185 0.002177337 0.040950228 0.029830363 0.21655878 0.4209328 0.05512452 0.27927792 0.015607786 0.06802808 -0.001864731 -0.30038017 -0.43803406 -0.086815275 -0.29947475 0.0447385 0.26768163 0.46169144 -0.056746453 0.22931151 -0.22180171 0.34983066 -0.054424807 0.31777862 0.01884196 -0.2869312 -0.24109061 0.22849275 0.04501024 0.07936307 0.29510164 0.09944512 -0.37788415 0.033025842 0.16080931 -0.31530112 0.075790726 -0.5721058 0.0075350353 0.07587369 0.1343082 -0.14313008 0.11492718 -0.0325897 -0.088980086 -0.35256684 -0.12779705 0.26792026 0.21816255 -0.27254608 -0.06008601 -0.3552702 0.08411824 0.35177007 0.09910687 -0.15175593 -0.133706 0.093992986 -0.36651704 -0.105859056 0.016918378 0.38751945 0.22618882 0.1585542 0.14116988 0.07466485 -0.032589946 0.2386874 0.06255936 0.07813355 -0.075190954 0.07374638 0.19515671 -0.50108975 0.19154826 0.14016011 0.04203227 0.28929275 -0.23271601 -0.22814092 0.041597053 -0.3173343 -0.29150906 0.29070663 -0.3132269 0.031501498 -0.21840928 -0.021184329 0.3078205 0.10297255 -0.6914091 -0.10880504 0.024346292 -0.29611722 0.21749786 0.076680765 -0.031566013 0.31438455 0.04916564 -0.24241799 0.23928946 0.52499926 0.066624485 -0.10488219 -0.080912195 0.10094944 -0.26466626 0.23577698 0.16402097 -0.16350019 0.31333873 0.19011924 0.0962919 -0.50483155 0.20126334 -0.07777364 -0.4315488 0.104973525 -0.08677097 0.31990057 0.09352804 0.25106952 -0.22469892 0.24215119 -0.6462621 -0.05140176 -0.023827566 0.25653136 0.03340349 0.38559237 0.015773967 -0.19486216 0.2425772 0.22116786 0.08218219 0.26535237 -0.0038723683 0.40263695 0.25582495 -0.019118425 0.24321643 0.06815996 0.2622386 -0.30513617 -0.24049267 -0.06785818 0.18939288 -0.1262918 -0.07166341 -0.0848682 0.07921118 -0.1313649 0.31937635 0.26412612 0.039009098 0.39435804 0.0598447 0.107147545 -0.114721 0.28032827 -0.03782398 -0.18497148 0.3760905 0.053921685 0.16375738 0.21298428 -0.25301096 -0.4095717 0.23575746 -0.09804643 -0.15914357 -0.16413699 -0.09271524 -0.058333702 -0.69004494 -0.040963937 -0.0037512744 -0.21195213 0.20761214 0.13995552 0.02858768 0.029192492 -0.14962022 0.41376287 0.2778366 0.30021456 -0.06560673 -0.15155637 0.16688316 -0.06080911 0.36768976 -0.6606357 0.2532249 -0.24822979 0.14728634 0.2961705 -0.2797682 -0.23015735 0.090900816 -0.3920118 0.32894102 0.20013602 -0.030297846 0.16984838 -0.4331946 0.8780061 -0.015125512 -0.18634872 0.3772664 -1.1219614 0.050740108 -0.10484451 0.56252915 0.13387132 -0.15256149 0.29592496 -0.66233784 -0.20117293 0.1264804 -0.15735558 -0.050836787 0.5008453 0.35764322 -0.031833492 0.22517213 -0.12811229 -0.38043964 0.3421824 -0.41697642 -0.3062486 0.12025459 0.250516 -0.16083169 0.122723 0.3138154 0.4422253 0.05730126 0.28486985 -0.22484998 -0.2351698 -0.20705277 -0.20735203 -0.11342122 0.028491339 -0.0030313856 0.3026348 0.18582694 -0.29086673 -0.18236433 0.43748453 0.19943933 -0.19384597 -0.19370525 0.29370576 -0.37725532 0.72874427 -0.2611158 0.20764479 -0.3501921 -0.025974648 0.28009337 0.21124159 -0.47727516 -0.17234595 -0.66982144 0.33780172 -0.12806363 -0.7017455 -0.918825 -0.132873 -0.08706003 0.2763537 0.030179111 0.4100042 0.113620035 -0.39419353 -0.47944984 -0.2518413 0.44373095 -0.098590516 0.3029672 -0.13658148 0.15859786 0.5693994 0.053914506 0.06292824 -0.20282508 0.6099901 -0.97395295 -0.02658124 0.47877568 0.14700197 0.41908836 -0.13842675 0.0139555605 -0.082142614 0.46123946 -0.20939669 -0.3579652 -1.1382642 0.5440591 0.04437659 0.119539954 -0.46286556 -0.8736539 0.81735885 0.6844769 0.37647843 -1.0737544 -0.1271081 0.124100864 0.25837794 0.28083864 0.040412623 0.085514 0.20473367 0.022374123 -0.289251 0.09877713 0.38703838 0.0498732 -0.1513229 -0.007414896 -0.13529584 0.016727494 0.008771527 -0.28834045 -0.014774687 0.26129174 0.34465253 0.28803983 0.26283208 0.024932083 0.38473856 0.1376383 0.18092829 -0.28217325 -0.28950188 0.12697648 -0.1673323 -0.26409012 0.030460283 -0.39833894 0.089876674 -0.34851855 0.36816466 0.3832946 0.320319 -0.087094784 -0.005226143 -0.26876357 0.40172276 -0.13943173 -0.057205003 0.14611702 -0.18140934 0.30138433 0.2894331 0.01334081 0.08177829 -0.28457776 0.022288455 -0.14002009 -0.065070175 -0.016288795 0.26785088 0.008714737 0.2927177 0.16576844 0.10720044 -0.1733229 -0.16286553 -0.55530113 0.19291824 -0.17516847 0.5027057 0.021269346 0.032724578 0.46960562 -0.06984116 -0.0075092637 0.10095571 0.19987173 0.39229405 0.34967384 -0.08145188 0.39578414 0.3708134 -0.3486323 -0.060768742 0.2800217 0.4387575 0.3368397 -0.32026228 -0.13773502 0.34273446 0.22299229 -0.8905287 -0.62104493 0.19196749 0.43770054 0.30955544 -0.14573416 0.27037382 0.2457091 0.21439761 0.23161219 0.018917974 0.1276512 -0.20630004 -0.15531835 -0.14553122 -0.15849687 0.34169054 0.32966095 -0.025840359 0.03557819 0.36308503 0.27035668 0.11219507 -0.022553703 0.040319327 0.43313742 0.19574417 -0.14173757 0.2890719 0.29724118 -0.026636299 -0.07071701 -0.19118263 0.29576835 0.16693176 0.15956484 -0.30228534 0.03423588 -0.36226043 -0.41521427 0.24869034 -0.59417886 0.19108239 -0.4817657 0.3323279 0.16183951 -0.15587911 0.031698465 -0.11542621 0.08405834 -0.6808968 0.23527032 -0.13371018 0.42971912 0.22432257 -0.5725567 0.23177925 -0.140943 0.0024539523 0.29524192 0.3483631 -0.028875476 -0.11014544 0.12157619 -0.27603644 -0.16132563 -0.31765264 0.035472624 0.13902251 0.093989916 -0.78618586 -0.07028301 0.17739049 -0.0013277066 0.2734185 -0.12472108 0.1785714 0.32534602 -0.020989887 0.25968876 -0.029617215 -0.105171286 -0.31871006 -0.12190141 0.044553503 -0.13683833 -0.10684691 0.5247431 0.015299723 0.2162991 0.058249064 -0.044798028 0.3417708 -0.18918046 0.08583459 -0.021328311 -0.1770491 0.32663423 0.16048767 0.25081992 -0.04194509 -0.004135186 0.047662288 -0.30927128 0.00988508 0.17592429 -0.13102584 0.18648694 -0.118068285 -0.060392432 -0.031728428 0.4756648 -0.4798511 -0.015220565 -0.55864954 0.4279691 -0.10084091 0.2314753 0.1922665 -0.79019016 -0.25861782 0.28880477 0.12984206 -0.023809087 -0.37340966 0.16102776 -0.028408915 0.27040353 -0.43679538 -0.36636034 -0.16202413 0.5613084 -0.5056455 -0.15531667 0.25516334 0.6876249 0.1181996 0.19645439 -0.2401759 -0.83616585 -0.85329694 -0.046569444 -0.3897678 0.074859925 0.30166176 0.038403247 -0.15095796 -0.09962144 -0.051345773 -1.2649268 0.7880073 0.3327568 -0.17777385 -0.008716668 0.2046584 -0.18947342 0.24628358 -0.16636467 0.3957118 -0.23183724 0.07988351 0.13099082 0.24504943 0.02370531 -0.33790356 -0.24409536 -0.32064772 0.37268388 0.40867627 0.24407096 0.034947816 -0.12165247 -0.7188397 0.020432793 0.2177254 0.28244334 -0.30276743 -0.049043942 0.051390875 0.45346949 -0.21707807 0.38411015 0.14414401 -0.24174741 -0.05487919 -0.049007297 -0.083781555 -0.10751048 -0.76115483 -0.18252307 0.024182975 0.037788447 0.8020275 -0.42385638 0.022776168 0.19950584 0.10015685 -0.110177636 0.31454968 0.16146272 0.20598844 -0.09058014 0.37646228 -0.024610983 0.4926176 -0.12260634 -0.36793354 0.37146097 0.3101832 0.1340281 -0.25945857 -0.00036726994 0.03555587 0.22222905 0.45761952 0.43829173 0.11115886 0.38788617 0.36303774 0.3729712 0.41123354 0.35708568 -0.08005401 -0.21093905 -0.33863962 0.16933487 0.071735136 0.29744285 0.08850893 0.113074884 0.1311269 0.23461905 0.38506445 -0.35452944 0.12794492 -0.53938913 -0.16547324 -0.4255234 -0.62838334 -0.40454996 -0.08896449 0.0031629456 -0.449875 0.33753872 0.046446383 0.17934535 0.5765639 0.18230678 -0.2886111 -0.129409 0.43972588 -0.001082951 -0.12448522 -0.07270219 0.46483642 0.39939094 -0.043358836 0.37810317 0.61487675 0.1850246 0.47846094 0.5123786 0.27254426 0.02858698 0.5621328 0.35013357 -0.042279523 -0.41001529 0.32096496 0.83910066 -0.29366827 0.0041412134 0.07615627 0.25755242 -0.113059066 0.0028622805 -0.032542333 -0.19016096 -0.24251345 0.5362301 0.64408726 -0.49567917 0.46005747 0.032513086 -0.20241462 0.11667495 0.20680004 -0.35290062 -0.40832135 0.06977346 -0.41676193 -0.08319438 0.039021224 -0.2134738 0.2743409 -0.016440256 0.15618303 0.3790846 -0.24367952 -0.25031358 0.31173116 -0.28602198 0.06085018 0.20440325 0.2984143 -0.106911555 -0.12078859 -0.2764679 0.22901607 0.0006469108 -0.0063943993 -0.0679144 0.2675218 -0.14074309 -0.20369433 -0.24227937 0.5899485 0.5141386 -0.49149624 -0.13737582 -1.2361758 0.1797438 -1.2252378 -0.16635416 -0.055241242 0.100281276 -0.2000077 0.6279039 -0.45030507 0.16736728 0.101759814 -0.27346355 -0.048368003 0.20241801 0.19277035 0.3847019 0.14762568 -0.38646397 0.3002679 -0.37172508 -0.8239084 0.1803368 0.30439103 -0.33392143 -0.12497591 0.18302372 -0.27671087 0.22948699 -0.031455368 -0.15024763 -0.20175196 -0.00023514632 0.08396761 -0.6023904 -0.38660812 0.02499988 0.32414356 0.081804715 0.2018506 0.3398875 0.031541076 0.2699083 0.14838721 0.29322898 0.2393444 0.36756507 -0.0484368 0.35851753 0.08001316 0.033766128 0.3770888 0.006838714 -0.00858664 -0.10763961 0.07440782 -0.24871066 -0.34346247 -0.2403039 0.112556115 -0.21032865 0.1084238 -0.18282102 -0.2722231 0.02522319 -0.03734491 -0.44111142 -0.43202886 -0.9263027 0.31603488 -0.32812977 0.02695292 0.2962932 -0.19158459 0.43896922 -0.15279327 0.012474206 0.13733837 0.04765002 0.13664709 -0.27263555 -0.051031478 0.28386372 0.2443144 -0.054141797 0.22467409 0.10518348 -0.04868191 -0.91946834 -0.7253993 -0.25420034 -0.13356072 0.17752391 -0.22921103 0.20817403 0.012071872 0.13530321 -0.32451892 0.21240206 -0.056801356 -0.07231634 -0.162616 0.18382713 0.06067343 0.4055846 -0.37153566 -0.36121923 0.32966062 -0.48619077 -0.09040319 0.1929434 -0.52677435 -0.21795264 -0.17217237 0.41635245 -0.49806377 0.24175373 -0.15062882 0.44503507 0.28321663 0.2523025 0.06329714 0.3175772 0.43566075 0.29337958 0.23198348 -0.1827559 0.2590044 0.37981263 -0.25358355 0.1513099 0.29059005 0.49281132 -0.13578242 0.19297975 0.14970183 -0.02709184 0.19756824 0.08340835 0.14587966 -0.06461708 -0.026447995 0.35707763 -0.2489907 -0.527537 0.3021317 0.20181274 -0.28232178 0.60255605 0.23176178 -0.8341818 0.30245525 0.30976072 -0.32827318 -0.22896855 0.2024264 -0.5254365 0.13042662 0.28016087 -0.116105914 -0.15320219 -0.1661645 0.22610775 -0.33515897 0.30101988 0.16322671 -0.7182657 -0.17688254 -0.33350137 0.24616489 0.036990065 -0.2153138 0.13044007 0.13710581 0.16722144 -0.020947319 -0.11934171 0.3312033 0.1442745 0.06224456 0.077727914 0.18637678 -0.22957171 0.09968517 0.13590164 0.25017315 0.061423298 -0.13101105 0.17064865 0.3109691 -0.0976088 0.0066467347 -0.1272524 0.3406999 0.004522804 -0.17288348 -1.4759933 0.1968445 -0.012460363 -0.28431863 0.06849654 0.09191771 -0.018138357 0.38423088 0.08531083 0.29997095 -0.08722504 0.24067563 0.14038122 0.05338899 0.22395186 0.15117666 0.19661085 0.0177788 0.31066555 0.06950712 -0.07768276 -0.46407807 0.36551705 -0.17399703 0.05678637 -0.060328785 -0.0128357895 -0.21870533 0.46575543 0.03943349 0.17434956 0.008226818 0.1430635 0.15299045 0.10155886 -0.060759764 0.49810567 -0.5118419 -0.26716268 -0.14864168 0.14646001 -0.72549397 0.33759287 0.50428975 0.36216524 0.3007327 -0.28333783 0.42730948 -0.035547722 0.2194481 -0.56677526 -0.190541 0.3793982 0.2168658 0.5102647 -0.31657046 0.065156735 -0.18374646 -0.12520638 -0.08839837 -0.16643436 -0.94719297 -1.1029603 0.2128756 -0.607217 0.106188335 0.07530427 -0.859252 -0.1209208 -0.102628306 0.10736744 -0.19521531 0.22568811 -0.118676625 0.30784008 0.26197603 -0.2562693 -0.39946598 -0.093121015 0.011157687 0.3720078 0.10140643 0.09206187 0.34278008 -0.09517466 0.16942948 -1.5290518 0.1452337 -0.05364105 -0.12517875 -0.06357402 -0.15645048 -0.019265788 0.14541377 -0.18717864 -0.19326717 0.08531148 0.1835727 -0.00062099204 0.2805261 0.23273812 -1.4400481 -0.025311874 -0.08031828 -0.11871742 0.3288163 0.32566723 0.19355285 0.38211828 0.09990534 0.027486812 0.20005386 0.13162693 0.14809233 0.022613404 0.059542418 0.4029086 0.5388721 0.34449202 -0.10898719 -0.1210859 0.24060065 0.1996693 0.11111574 -0.22492665 0.08409803 -0.091425925 0.12113094 -0.34364584 0.32588968 -0.31195983 0.063939795 0.05119212 0.08549828 0.29009736 0.48161763 0.08017552 0.12640995 -0.36915594 0.06259501 0.42407376 0.1072289 0.19159204 -0.12011516 -0.073123746 0.23474823 0.043097023 0.27096796 0.091427416 0.30142525 0.24729955 -0.12033001 0.12456866 -0.14224936 -0.30599824 -0.25084782 0.17250034 -0.07615278 0.17691183 -0.19259384 -0.5187534 -0.26212478 0.31155506 0.21127856 0.17970553 -0.18060663 0.17407249 0.44040218 0.18446645 -0.05057559 -0.54786426 0.20999037 -0.95491385 0.12132137 -0.011556534 0.18512462 -0.05180177 0.009879556 0.0013059339 0.10063889 -0.2058686 0.15345994 0.101551354 -0.04594758 -0.5226385 0.161143 0.18020324 -0.52476656 -0.49219814 0.249231 -0.8019761 -0.37441656 -0.14671305 -0.40946826 0.26063344 0.16701135 -0.037521496 0.11624661 0.40069905 0.102411665 0.16004403 -0.08981429 0.14300695 0.31505936 0.38448706 0.20038807 -0.30073315 0.14261696 -0.068167396 -0.1514184 0.3222292 0.078206874 0.29451555 -0.9997068 -0.06930696 -0.4284679 0.3351038 -0.3838595 -0.32578143 0.10953353 0.18751706 -0.112927206 -0.2020859 -2.0386627 -0.47595915 0.07034605 0.35133204 0.09711854 0.21739785 0.114194214 0.3367362 -0.2734959 -0.37580776 -0.47425234 0.5696792 0.0045984183 0.007243413 -0.26045057 0.042672757 0.053549334 0.24951631 0.24373294 0.12923925 -0.30118832 -0.056403574 -0.6636061 0.4655145 0.11236018 -0.068242535 -0.5814685 -0.29067078 0.1875694 0.3784382 -0.75876296 -0.36878964 0.21973796 0.06179356 0.2801776 -0.12920265 0.22217505 0.06624192 0.14347436 0.31580308 -0.5831669 0.03126648 -0.40281135 -0.16950712 0.03814784 -0.37759382 -0.14004944 0.20147054 0.021599136 0.22006442 -0.2887891 0.38679194 0.3345848 -0.5436157 -0.36290532 0.14269595 -0.006797783 0.21516365 0.17919345 0.0840178 0.11049415 -0.18455835 -0.49788955 0.28342244 0.42032534 0.44023642 -0.032386765 -0.29846123 -0.29047382 0.25931913 0.006561785 -0.24658434 0.02619158 -0.43715525 -0.40891224 0.11279618 -0.025680732 0.16713849 -0.61856973 -0.161968 -0.085176945 0.3568621 -0.9045653 0.21610232 0.44382662 -0.70735765 0.10753881 0.1111447 0.5962441 0.2418715 -0.09852573 -0.2221074 0.053429704 0.34921837 0.4501581 -0.5133282 0.65396833 0.23249787 -0.53356683 -0.5650739 0.085173406 0.458125 0.26525307 -1.0886979 -0.09626155 -0.47669354 0.40099406 0.020259323 -0.26342642 -1.3820988 0.54384667 0.5000997 -0.26618284 0.15990195 0.40536848 -0.13814531 0.052872572 0.0060733156 0.1330052 0.06266435 0.8470362 -2.116118 0.4200543 0.36664706 0.19578072 -0.4209444 0.04834939 0.6893976 0.32503235 0.43755677 -0.5894451 -0.52385986 -0.7697119 0.020056423 0.44885442 -0.43567598 -0.076573715 -0.57587475 0.4620532 -0.022648348 -0.4721968 -0.13304356 -0.022024011 0.079216816 0.045540053 0.019276269 -0.060283273 0.11783259 0.050909713 -0.1837593 -0.7664571 0.44073576 0.3897214 0.2943647 0.4742456 0.20850337 -0.19660468 0.10862313 -0.15811642 0.46505168 0.03697257 0.1313467 0.036678717 -1.0391172 0.0020621181 0.029169064 0.1333941 -0.27702132 0.18713744 -0.33795884 -0.022412792 0.23689835 0.12982868 -0.23478903 0.007243735 0.31713074 0.15570995 -0.13619962 -0.06433659 0.3294858 0.09140023 -0.024207452 -1.0282434 -0.057789076 -0.22488403 -0.51381844 0.10342963 -0.15379532 -0.26732323 0.35755444 0.6009452 -0.075462766 0.13683769 0.22448072 -0.5378529 0.1908983 -0.43356228 -0.050787892 -0.31158715 0.2737629 -0.056670472 -0.45111114 0.23882078 -0.4876587 -0.4830744 -0.16162719 -0.28647107 -0.034048013 0.29370657 0.04060171 -0.20082475 0.36681232 0.22456272 -0.56234634 0.084714636 0.08163574 0.14971282 -0.09485334 0.14085262 0.060403 0.03635002 0.2742728 -0.29150212 -0.062738195 0.05881749 0.42045867 -0.2224918 -0.31159616 0.41597462 0.071241625 0.037620585 -0.29993606 0.10997792 -0.3773316 -0.2718204 0.5615061 0.0062297066 -0.44573268 0.34650433 0.39943478 -0.15988961 -0.09128532 -0.13051066 -0.040599674 0.48016676 0.121105805 -1.6399641 -0.051420473 -0.0063626524 -0.2657849 0.12339014 0.07023227 -0.03411101 0.31129012 -0.13190617 0.1486952 -0.58978003 0.16014175 -0.0729923 0.18307 -0.21201436 0.078917444 0.38577634 -0.10327637 -0.3979033 -0.17772533 -0.9583012 0.34606022 0.2316947 0.42780137 -0.056062397 0.09865464 -0.18874468 0.23600748 -0.08473177 0.2512063 -0.09120002 0.25869295 0.24969359 0.24623768 0.16443726 0.082000464 -0.27817068 0.4068438 0.1769757 0.37560248 -0.4941882 -0.057994768 -0.111059725 0.051097862 0.17714533 -0.10660517 0.32867193 0.21856159 -0.10156269 0.2650864 0.07017711 -0.64638823 0.12358023 -0.123157755 -0.14105573 0.3075557 -0.34503362 -0.16276067 0.009447911 -0.11168723 -0.058844715 -0.416277 0.24079424 -0.14268827 0.27975902 0.13640305 0.075198 0.09453811 0.19610411 0.31049204 0.54671496 -0.4413584 -0.453346 -0.050639406 0.22811753 0.3566592 -0.20097078 0.1320486 0.04114898 0.26936802 0.16716042 0.41899818 0.16065593 0.048373815 0.66415715 -1.2189225 0.20271188 -0.28393176 -0.2549128 -1.150964 0.037177134 -0.12512113 -0.04049612 0.49855626 0.1420839 -0.06158609 0.037614945 -0.6903569 -0.012177446 0.02064598 0.032689147 -0.054626618 -0.015590621 0.22829762 0.15858272 -0.1371937 0.33083323 -0.47631174 0.23722611 0.3145728 -0.047872316 0.407737 -0.010009965 -0.12873942 -0.014454451 0.0076794187 -0.28735095 -0.08226411 0.31638023 -0.10713422 -0.2817081 0.2870044 -0.15987317 0.13908409 0.046913568 -0.21118958 -0.6848821 -0.0026079125 0.29953462 -0.07861446 -0.25058776 0.021281717 0.1795474 0.016502662 0.34253475 -0.018885752 -0.20387915 -0.2932599 -0.03880232 -0.24545105 -0.035274014 0.32647157 0.18451402 -0.7510022 0.22487283 0.39821133 -0.14813344 0.0039764205 0.16898116 -0.346277 -0.08961877 0.14497484 0.2638724 -0.6425817 -1.0672674 0.064694494 0.25136733 0.0177654 -0.47468168 0.38793942 0.17684765 -0.25562257 -0.2061275 -0.9851701 0.3880069 0.03530663 -0.21034577 -0.30361396 -0.24534088 0.29709458 0.415483 -0.18016684 0.16870026 0.4242109 0.020300379 -0.18651308 -0.79902023 0.10695185 0.09649343 0.0035571493 -0.12618588 0.25158435 0.1956712 0.007049067 0.07908745 -0.08251085 -0.11864902 0.17763981 0.020081317 -0.02469883 -0.10651833 -0.04063451 -0.10923521 -0.22877572 0.2797714 -0.23737305 0.26071247 -0.062400557 0.15390328 -0.1532406 -0.047859605 0.19455057 -0.08973635 -0.54845124 0.0070804427 -0.2884151 0.2878016 0.25700352 0.009158807 0.08060578 0.22816662 0.36114445 0.022117555 -0.013627593 0.15617801 -0.43518537 0.2406414 0.2698702 0.33704284 -0.032847967 0.1680744 0.07746528 0.12167423 -0.10721557 -0.1144301 -0.18164757 0.0927568 -0.16799542 0.022636207 -0.17229585 -0.19348063 -0.33988884 0.30775556 0.13014594 -0.39298683 0.11660432 0.0031730074 -0.18923077 0.28994727 0.13048342 0.18455262 -0.05235317 0.31887805 0.22108789 -0.12351339 0.1829458 0.21868238 -0.023832846 -0.07977718 0.21986026 0.11858795 0.12378134 0.20681939 0.20537269 -0.10991119 -0.18510595 -0.27401847 -0.23276588 -0.3717672 0.37799692 -0.10777588 0.16438341 0.34160691 0.2554436 -0.19409692 -0.003032449 -0.3676185 -0.2058465 0.075384915 0.1221753 0.097541295 0.2968082 0.09529319 -0.19917794 0.04091501 -0.23721279 -0.14981237 0.38262978 0.012769341 -0.026690269 0.2140474 -0.039218266 0.039743 0.075139284 0.2738182 -0.21067211 0.108954675 0.4332779 0.37274945 -0.09820948 -0.038744498 -0.05260457 -0.87432146 -0.043123942 -0.03415786 -0.18404496 0.2598235 -0.83158016 0.14134155 -0.30542788 -0.02051902 -0.32437682 -0.026930628 0.022162879 0.084638275 -0.290694 0.17113765 0.19917375 0.021749659 -0.5246368 0.18686916 0.25972894 0.07147919 -0.040129483 -0.13536918 -0.31768718 0.1747544 -0.25089997 -0.080218315 0.3559979 0.43666643 0.41379103 0.17727329 0.14436877 0.21457581 0.22538452 -0.13625307 -0.36897793 -0.6765961 0.22237973 0.089422874 0.13822952 -0.032396965 -0.076923944 0.267991 0.48644686 -0.3099864 -0.26219544 0.13910365 -0.005260541 -0.7227358 -0.22491753 -0.019279173 -0.13290724 0.032996625 0.19965862 -0.12743184 -0.11019954 -0.0827262 0.17398058 0.21008302 0.28824013 0.11207487 -0.3272256 0.097094 0.18721588 -0.34709948 0.24766444 0.22747351 0.17451634 -0.28284502 0.08971096 0.08427714 0.08790042 0.19736259 0.1900384 -0.13018449 0.29107577 0.1407243 0.04621876 0.21003473 0.1478391 -0.24412686 0.109530546 0.23242079 0.107629746 0.2601994 0.038047325 -0.3025039 -0.08453522 0.20405225 0.08565619 -0.3547503 0.03829628 0.5003533 -0.1765091 -0.11377432 0.023833666 -0.10945093 0.12245918 -0.020261595 -0.25173247 0.13773683 -0.18497372 0.16552654 0.066293254 0.24970055 0.12986699 0.13343985 -0.19965181 -0.15427594 0.15249768 -0.11650703 -0.35211703 0.42222562 -0.38029635 0.07382971 -0.28815377 0.10670398 0.37633455 -0.35703754 -0.1864826 0.16812575 0.0019542032 -0.023541573 0.1056253 -0.2333684 -1.1148165 -0.63859004 -0.24963418 0.41063228 0.103733085 0.46690464 -0.28564963 0.27301553 0.06599663 0.10491343 0.060977865 0.19701988 0.08343178 -0.18190639 -0.112944454 -0.31888434 0.08693732 0.15871273 0.5337924 0.21234806 0.19691722 0.15097743 -0.22684762 0.06480038 -0.034140058 -0.121354215 -0.29629385 0.22866784 0.24475965 -0.80379516 -0.10145327 -0.122014605 0.13287959 0.25862953 0.36869115 -0.23695263 -0.09258657 0.5100699 0.33877814 -0.082712986 -0.23017024 -0.09120254 -0.47244194 0.2350588 0.45002806 0.19006334 0.07104908 0.042708226 -0.10389984 0.09812427 0.0403654 0.8760385 0.24195138 0.23539236 0.5304273 0.08918962 -0.43862462 0.3520779 0.020618258 0.058515344 -0.6132755 -0.05488773 -0.05557531 0.3249651 0.10914841 -0.95530224 0.05204414 -0.11553129 0.05904974 -0.29328826 -0.5055977 -0.46446252 -0.4730736 0.2162655 -0.4037524 0.12298473 -0.15106986 -0.97487664 -0.3703223 0.13592316 0.33155617 -0.054934826 0.0026565697 0.22150312 0.0020914609 0.28841656 0.31385526 -0.26775825 -0.4530994 0.24671596 0.12807441 -0.18729779 0.3244745 -0.20255294 -0.41614684 -0.103089295 -0.86148024 0.05288446 0.47854778 -0.12871268 -0.15058956 0.06539529 0.03398619 -0.074265435 -0.67191464 0.1442066 -0.51404333 -0.010783862 0.4216686 0.43702734 0.13104257 -0.57929 0.25977612 0.54869306 0.36813316 0.11433709 0.06431925 0.23471718 -0.60975784 -0.05857327 0.0061128736 0.29607284 -0.1267766 -0.0014514686 0.1250013 0.059321687 0.04145589 -0.07079141 0.06897507 0.35670376 0.2330186 -0.21667373 0.3675376 0.12998731 0.007622478 0.40098247 0.2525795 0.3191695 0.006176199 0.17984305 0.15244913 -0.32644355 0.33284625 0.26137853 0.10159674 -0.29386207 0.06715953 -0.0023310946 -0.20726289 0.055243373 0.07531977 0.36936876 0.3995843 0.19605242 -0.34097093 0.15505747 0.12680514 -0.30195755 0.26276594 0.23830444 0.46110684 -0.089095704 0.4558573 0.20539999 -0.12847982 -0.23521857 -0.21765058 0.300331 -0.53438187 0.22136492 0.15887405 -0.046285525 0.34971818 0.031113544 -0.34093055 -0.093662165 0.26350227 0.21016124 -0.5820507 -0.57300514 0.21934247 -0.36034882 0.44034794 -0.2608796 -0.067036636 -0.87909377 0.022495613 -0.30448484 0.03855773 -0.3027465 0.01268313 -0.3358742 0.466912 -0.15590283 -0.10305637 -0.5758745 0.060925473 -0.38036552 0.13688168 -0.6336328 -0.52794546 0.14308009 -0.058704518 0.1705391 -0.47027248 -0.13118455 0.032917496 -0.3878352 -0.8791298 -0.04981314 0.2614105 -0.13197078 -0.21190615 0.12006408 0.23031594 0.18492736 -0.40547562 -0.64064944 0.1372489 0.2066323 0.14639369 0.39734587 -0.40262952 0.08230505 -0.0890177 0.3381874 -0.21079893 0.02936081 0.14950061 -0.05491002 -0.7088372 0.7269545 0.27151042 0.36072922 0.10611593 -0.19898567 -0.08215389 -0.17521572 0.39695308 0.20067312 -0.5299582 0.25291786 0.25101802 0.25146136 0.03231821 -0.16653267 -0.10727888 0.2251853 -0.07446742 -0.013186639 -0.17963423 0.28530717 -0.18241225 -0.6940557 -0.20342386 0.30545652 -0.20421238 -0.06644533 -1.0583305 0.16705851 0.4716916 -0.2218038 0.45856357 -0.111964345 0.26664796 -0.20442149 -0.32567772 -0.09421288 0.0388621 0.10901824 -0.013465235 -0.48688713 -0.41423738 -0.6735024 0.2982102 -0.24573657 0.191542 0.38748989 0.1362648 -0.02487769 -0.1319839 0.20974751 -0.6129224 -0.096059866 -0.15413144 -0.14944045 -1.8742552 0.30080232 -0.12037692 0.10272512 -0.17805444 -0.15478435 0.22594245 0.08591954 0.73863345 0.6551658 0.060056426 0.04789146 -0.26156798 0.18090357 0.49562153 -0.120787255 0.3202826 -0.35254374 0.5019892 0.2001665 0.34518912 -0.5680745 0.15557861 0.5316291 0.15801898 -0.029031476 -0.43630257 -0.2920782 0.09538883 -0.23045656 -0.042667687 0.3715204 -0.46667576 0.0059170052 0.42387062 0.5288365 0.55596733 -0.09628133 0.36688694 -0.032681033 0.17988852 -0.21196748 0.11546575 0.1181275 0.36201474 -0.23418194 -0.019784903 0.11649808 0.23751038 0.43745643 0.16365927 -0.31259713 0.30213776 0.29925263 -0.22524108 -0.23809296 -0.2326158 -0.17507422 0.4096157 -0.23148683 -0.23990545 0.32587898 -0.61387676 0.40208718 0.55555207 0.14793804 -0.024364945 0.15274148 0.014967824 0.104065225 0.2323863 0.28590775 0.10858937 0.12308278 0.28339803 0.35923943 -0.023348143 -0.19636688 0.1164394 -0.35508943 0.13304733 0.04298607 0.19372593 -0.2585854 -0.31543368 0.260939 -0.20053771 -0.32077634 -0.42610016 -0.07083511 -0.12935044 -0.089655355 0.04953029 0.328083 0.18938841 -0.18654726 0.025949571 -0.1959505 0.2816575 0.12272928 0.39676586 -0.5555108 0.04097346 0.0057332786 0.21505356 -0.4083155 0.7412368 0.16462573 0.16377296 0.27221724 -0.15619583 0.035251763 -0.20965078 0.0067169885 0.25127345 0.17745148 0.36922887 -0.75863594 -0.087150656 -0.07483273 0.26941046 -0.609936 -0.2856468 0.10797347 0.5083773 -0.08493535 -0.0901461 -0.42343366 -0.93711454 0.1720457 -0.48400307 0.12446482 -0.12198084 0.26107478 0.02393227 0.41648358 0.07441306 0.39878765 0.17931254 0.4433239 0.31805775 0.05943052 -0.14093052 -0.07399949 -0.077341735 -0.27727076 -0.23025924 0.24816501 -0.16505471 0.17876424 -0.40073606 0.26348007 0.112188295 0.056449603 0.16984913 0.3159083 -0.26742822 0.29800314 0.3858319 -0.21584207 0.13890342 -0.00081767415 -0.21475 0.09367369 0.24890871 0.28615162 0.042113256 -0.019670868 0.23661216 -0.7005238 0.31845608 -0.094340496 0.2812192 0.06348779 0.033888724 0.06944481 0.08325307 0.03239659 -0.036682248 -0.34694755 0.3479112 -0.754455 -0.11542914 -0.007548131 0.47192636 -0.11401205 0.08088099 0.2353346 0.21723127 0.108986035 0.4034146 -0.53519905 -0.90846103 0.20385207 -0.529729 -0.08672101 0.1233205 0.111598484 -0.005397163 -0.1537508 0.10790954 0.14736769 0.17403151 0.19802688 0.20127949 0.26138115 0.02877077 0.24378975 -0.8972241 -0.16237609 -0.3507308 0.37253505 0.6513101 0.07687853 0.261293 0.19109295 0.07463708 0.062488474 0.5281973 -0.12236515 -0.16588108 0.08568045 -0.15640748 0.23380768 -0.33231753 0.08642188 0.2518586 -0.13369392 0.4919997 0.10268661 0.022769565 0.5014093 0.29467452 -0.1830672 0.015277785 0.21138667 0.34739676 -0.2995944 0.11372549 0.27580193 -0.1702774 0.17906767 -0.034775272 0.2375605 -0.22623774 0.17887828 0.32440764 -0.16022113 0.053529046 0.06567615 -0.012491558 0.23582138 0.30656716 0.3979308 -1.5103767 0.08163481 -0.09363816 0.11815413 -0.42856932 0.021964144 0.10566962 -0.027451292 0.16796286 -0.17530599 0.032729592 0.20495233 0.18031879 0.09560519 0.16160044 0.0062804944 0.0102474885 -0.20603135 -1.0179331 0.0023230608 0.29129976 0.33508563 -0.12904711 0.21914831 -0.3300354 -0.31955668 -2.1134377 -0.14775597 -0.37279546 -0.027363177 -0.062173095 0.3863822 0.0006697156 0.06997132 0.51578677 -0.56768405 0.1266792 0.17356336 0.09667163 0.5573895 0.20452882 -0.25287595 0.07660747 -0.7015637 0.4605887 -0.3570904 -0.37323007 0.584532 0.47626042 0.0125404205 -0.61828005 -0.05263419 0.26007545 -0.4978039 0.2237478 -0.07854481 0.5630103 0.1725091 -0.37045416 -0.49582058 -0.20736884 0.3238164 -0.23696002 -0.39649343 0.34960952 -0.007780944 -0.011838509 -0.50803745 -0.5358083 -0.4265089 -0.3097322 -0.32565743 -0.22620788 -0.24760681 0.289834 0.50146335 -0.27155307 0.06648701 0.17065468 0.30392915 0.012220854 -0.06545706 -0.99611783 -0.08734712 0.032948505 0.059012003 0.29287753 0.1669948 -0.11825789 0.44635165 -0.09903545 0.20176761 -0.013715939 -0.70751905 -0.39468732 0.35586435 -0.30960461 0.12929854 0.13963695 0.0900812 -0.551468 0.095859036 0.119211465 -0.14097983 0.5953414 0.0804263 0.07623285 0.48834172 0.26023942 -0.62839264 0.05474208 -0.35469007 0.06202606 0.2104388 -0.19492865 -0.33760673 0.22941239 -0.9570301 0.19321907 -0.45864916 0.13253109 0.1718465 -0.0011286634 -0.41008136 -0.25711167 0.058000598 -0.620789 0.2158675 -0.62635994 -0.2423699 0.18627678 0.19398032 -0.44662064 0.024194743 0.33260888 -0.23257479 -0.31659913 -0.2994188 -0.041244294 0.3181266 0.015338604 0.037863314 0.08096112 0.29609993 0.15474233 0.19324683 -0.5197047 0.16582608 0.29425925 0.160855 0.090916365 -0.64332736 0.18881159 0.098716244 -0.23569539 -0.13546118 0.020942744 -1.6123675 0.17680588 0.16029277 0.26517397 0.34591073 0.20309845 0.15886226 -0.44550982 0.21461976 0.46927992 0.11494398 0.25673512 0.12023039 0.4065691 0.01587793 -0.0639545 0.056728702 -0.013453701 -0.5810001 0.04912648 -0.048468336 0.16090871 0.37450698 -0.32120675 -0.27077398 -0.11652469 0.03928104 -0.11794476 -0.2756353 0.42240432 0.004026924 -0.051268544 0.1722321 -0.04790339 -0.32800528 -0.75110114 0.18437512 -0.091052264 0.21770178 0.20685974 0.13981119 -0.23810472 0.2551708 0.16457242 -0.22086355 -1.2431675 -0.062874846 -0.030023647 0.16495848 0.25731966 0.036383696 -0.5857469 0.19906467 -0.5390873 0.4165248 0.30342317 -0.26315242 -0.08122578 -0.7909469 0.10180159 -0.118478544 0.23042034 -0.21146579 -0.059946556 0.26534393 -0.023229206 -0.38309336 0.15378009 0.14997248 -0.19426918 -0.09851292 0.12464893 -0.23630625 0.2305831 -0.13634986 0.029157812 0.20816335 -0.077834405 0.26693457 -0.17310637 0.28524697 0.09668432 -0.37687483 0.13589567 0.10683562 -0.2010521 0.26924357 -0.12661266 0.45621824 0.029991766 0.398846 -0.17367046 0.1419789 0.11796589 0.16024452 0.27120915 0.06361256 0.211784 -0.020363128 0.030438034 0.39151466 0.39860666 -0.024450544 0.46197978 0.35558116 0.091786474 0.20492686 0.17354266 0.16363075 -0.03656448 -0.105947286 0.0845473 0.33551672 -0.1525141 0.059036538 -0.08972795 -0.27406532 -0.15913102 0.09306282 -0.16575317 -0.04081379 0.10711909 -0.11851436 -0.0042644446 0.121852435 0.29099998 0.29930946 -0.3325843 -0.1289725 -0.10818413 0.17945181 0.32936776 -0.038871914 0.17148708 -0.295201 -0.932934 -1.3760515 -0.093179025 0.13143112 -0.11288546 -0.42774343 -0.7616057 -0.764687 0.110560216 -1.1944655 0.2407452 -0.00026184827 0.042317092 0.14115351 0.23330253 -0.09271945 0.26879707 -0.15678278 -0.120638534 -0.17656378 -0.109920986 -0.014034591 0.48305404 0.037587155 -0.11999333 0.10270391 -0.35190186 0.101079814 0.570012 0.3825605 -1.1012386 -0.1865924 0.1543171 -0.19308467 0.36299902 0.24101157 -0.043477573 0.18465246 -0.118722245 0.09175428 0.0050998046 -0.33219117 -1.2948484 0.045283485 0.13330509 -0.07245227 0.13494942 0.10153651 -0.12476248 -0.07384801 0.14368974 -0.23611541 -0.016756948 0.04719341 0.11126008 0.095478594 0.34987903 0.36549088 0.14602096 -0.46757525 0.27336827 -0.14567322 -0.06323184 -0.1574059 -0.09963652 -0.010445591 -0.601205 -0.3887588 -0.89417225 0.069653526 0.02810136 0.052530695 -0.39082488 0.17318822 0.49135005 -0.1283526 0.047469724 0.21725008 0.45487764 -0.24607569 0.37918895 -0.9535133 0.3327063 -0.29514092 -0.31651744 0.22964182 -0.10166107 0.7260429 0.2382591 0.20574771 -0.026349757 0.20310596 -0.16238731 0.047797725 -0.47288826 -0.032522287 0.027021602 0.00014851922 -0.25515887 -0.073906 0.04870963 0.25217137 0.17827986 -1.2700516 0.10266074 -0.07946447 -0.760292 -0.20111686 0.023276158 0.021203663 0.55769783 -0.0057932828 -0.52016705 0.37376508 -0.04273676 -0.29972148 -0.26043162 0.11184864 -0.48085797 -0.31794944 0.2441878 -0.26617578 0.23710169 -0.05725783 0.0862664 0.019272268 0.50681156 0.10865211 0.14699388 -0.047055937 0.084584154 -0.2069126 -0.31540865 -0.13314407 0.31210107 -0.028301833 0.4644386 -0.42310998 0.16362157 0.4334732 -0.10124884 0.08077647 0.12786376 0.17798735 0.3041958 0.23967907 0.2334331 -0.001023664 -0.09417334 -0.14172508 0.12810452 0.1445685 0.24429215 0.24200302 0.28066996 -0.20861344 -0.17574504 -0.07345521 0.40059185 -0.31826276 0.14751865 0.20394698 0.4336716 0.08321168 0.05345918 -0.40711907 -0.61365414 -0.11562975 0.14071552 -0.16219445 0.1865233 -0.21210904 -0.24316292 0.20393968 0.12225097 0.24753912 -0.09434913 -0.005062708 0.5632408 -0.3224005 -0.6147492 -0.056413632 -0.1549651 -0.2544592 0.03505415 -0.6075995 0.1797213 0.028649647 0.11654095 -0.11116268 0.31156027 -0.89365274 0.5918577 0.057332553 0.1058702 0.2878593 -0.7221713 -0.045844227 0.5240116 -0.1496753 0.528604 -0.121665195 0.3356361 0.3763076 0.4140329 0.19675684 -0.086571835 0.026952215 0.5805236 -1.1283625 0.15038328 -0.4066446 0.75617784 0.20176518 -0.04889918 -1.2230457 0.08001638 0.23529121 -0.07343521 0.2276786 -0.29797447 -0.071481064 0.6648414 -0.10614366 -0.28273395 -0.022204308 0.3771851 -0.43236881 0.14900634 -0.04512937 -0.31879514 -0.2554549 0.14669035 0.04215374 -0.21426779 0.5373202 -0.3686915 0.36193222 -0.17767727 0.33774337 0.41680166 0.33025685 -0.4591326 0.12797397 -0.13551188 -0.04788594 0.32859367 -0.34398836 0.04129254 -0.0991196 0.2737142 -0.18846911 0.10174895 0.13793507 -0.7857064 -0.2033869 -0.17841518 0.14048482 0.3448306 0.030726688 -0.2741243 0.15548423 0.37912053 0.07151256 -0.4534029 0.056526423 -0.23666652 -0.19713879 0.12576315 0.010440369 0.1622764 0.27463314 -0.41888413 0.10865926 -0.121492766 0.33247948 -0.46177107 -0.010084146 0.19077165 0.07858546 0.11949336 -0.2913489 -0.029376065 -0.06919207 0.35390568 0.2854474 0.23704466 -0.16845134 0.12664537 0.2661662 -0.19190128 0.2896657 0.14982271 -0.23989522 -0.14208962 -0.036491834 0.31070697 -0.10298915 0.0935778 -0.12550035 0.1272043 -0.2399427 -0.028277896 0.5654687 -0.32402176 -0.23588458 0.38326135 -0.1800957 -0.26014152 0.41756016 0.29042673 -0.38235137 -0.50759494 -0.094336666 0.054042757 -0.4926608 -0.008624582 0.045843184 -0.26523644 0.4515984 -0.034242775 -0.11385608 0.15305124 0.10584255 0.02286435 -0.030757047 0.09638224 -0.07441248 0.0047691176 0.26225668 -0.7076527 -0.11026238 0.34440354 -0.04548274 -0.31494325 -0.19444388 0.30682337 0.18840395 -0.4136222 -0.13498025 0.48250625 0.14335272 -0.23656033 -0.27136853 0.16194731 0.16128299 0.47678715 0.35297677 -0.39685658 -0.4133767 -0.5520506 0.085189775 -0.2728415 0.0909816 -0.008399157 0.15429533 -0.010633054 0.19093275 -0.06369204 0.23445056 0.13511918 0.16479036 0.046773937 0.25326106 0.006185307 0.3950184 -0.62988156 -0.24000709 0.25486076 0.008471865 0.20837007 0.085071094 0.08505209 0.04372496 -0.25606406 0.3749177 0.162576 0.10060336 -0.29404286 0.13537772 -0.13320161 -0.012157336 0.13182993 0.37603667 -0.1287838 0.25366583 -0.09089755 -0.1410672 0.5279458 0.06155356 -0.065190785 -0.66228366 -0.3941221 -0.19945517 0.24847928 0.3538083 0.3151665 -0.07510782 -0.033638205 0.025889175 0.022206254 -0.41888726 -0.04940744 0.07933485 0.20120816 0.48103228 0.056278493 0.25297934 -0.28952336 0.26758823 -0.21056639 -0.41343713 0.22824349 0.14338504 0.2424894 0.5781428 0.2738893 -0.36843407 0.15970267 -0.20941956 -0.3428232 -0.3033996 0.18695575 0.053856142 -0.7571637 -0.17994128 -0.11450131 0.25712898 0.31509846 -0.03252724 -0.38293284 0.032487534 0.3902752 0.4249516 0.00999929 0.14524122 0.34115097 0.25069907 0.20693654 -0.016963188 0.21596977 0.12400038 0.34594455 -0.22817779 0.25523084 0.097488225 -0.12584847 -0.6950807 0.19992091 0.27781567 0.080143355 -0.36265522 -0.31328937 0.114244096 0.13803315 -0.10452893 0.13286273 0.4845454 -0.2721811 -0.005188392 -0.12741776 0.1544752 0.17489187 0.38556397 -0.15703224 0.2887008 0.012553094 0.47380662 -0.6206275 0.05593855 -0.34723616 -0.053345364 0.21512818 -0.25029176 0.0062881247 0.7772113 -0.048368648 -0.35920796 -2.1006672 -0.007916338 -0.13734053 0.2688629 0.38685647 -0.052894488 0.30042294 0.27970567 -0.40192205 0.11147253 0.016110484 0.18049175 0.19339235 0.16990967 -0.086801246 -0.036269445 0.17606021 -0.18330869 0.083742484 -0.120078094 0.34973252 -0.14340788 0.017163703 0.30781087 0.078196816 -0.28747582 0.48024452 -0.72301114 0.09399523 0.08224357 0.049203347 0.33877316 -0.17998095 0.14981477 0.6512349 -0.22618186 0.33319253 0.26825082 0.1686487 0.32771644 -0.046534535 0.104420714 0.010942191 0.13617422 0.31922054 -0.14245616 -0.0046190433 -0.04806247 -0.1474331 0.20314154 0.19341484 0.054879468 -0.6137614 -0.24619228 -0.24584644 -0.16385792 -0.01903761 0.14672425 0.06559829 0.23122646 0.48811564 0.5759783 -0.5189068 -0.083662234 -0.3647102 -0.03511557 -0.8403229 -0.10265579 -0.112594105 0.24640027 0.21805231 0.36223406 0.055935085 -0.118738785 0.08465483 -0.18185626 0.16894652 -0.039901763 0.0014954153 -0.45877308 -0.60649455 -0.05428352 0.32203 0.24657306 -0.043368068 -0.01624033 -0.049357634 -0.3408989 0.1661885 -0.0006589293 -0.8466411 -0.11529742 -0.16221 -0.11506217 0.28198802 -0.0046453155 0.3466552 0.31147063 -0.44495335 -0.021377679 -0.8921328 0.41231856 -0.20108259 -0.52994674 -1.1210779 -0.42783615 0.16169153 0.17384198 -0.12014195 0.42067164 0.18817475 0.30470994 0.1467446 -0.31108633 0.262187 0.43854642 -0.21773265 0.17320223 0.25978053 -0.18617107 0.1517277 -0.06607408 0.11226385 0.21406308 -0.027719863 -0.11291439 0.51770616 0.11585013 -0.23882939 -0.26221612 -0.08961288 0.102177456 0.5025667 0.39499357 0.06665657 -0.0781596 -0.023085086 -0.29269427 0.22143863 -0.82330537 -0.98795074 0.17560175 -0.15010877 0.25088203 0.14645083 0.26404604 0.21037787 0.046307996 0.070258155 0.1670544 0.2607694 -0.0015325132 0.3652628 0.39808702 -0.047580924 0.19869086 0.031462472 0.119721286 -0.31939358 -0.19845185 0.088029385 -0.038587045 0.17082943 0.29966083 0.01916319 -0.14154091 -0.2760426 -0.14226967 -0.1531119 -0.5494283 -0.2901532 0.34587687 0.19612925 0.47169378 0.3244872 -0.08811944 0.2662457 -0.12458105 0.16491881 -0.8474236 0.479657 -0.009398222 0.19820973 0.37364647 -0.22382435 0.121640585 -0.22306144 0.05631935 -0.6229881 -0.00067233254 0.24762988 0.34396455 0.08616819 0.073456325 -0.22066715 -0.2650012 0.17934418 -0.20827717 0.0769563 0.13201088 0.70775956 0.0636616 0.16351736 0.3244964 0.012468032 0.060417704 0.3306625 0.015431673 0.35525793 -0.6381631 -0.0037902447 0.00061636325 0.15066034 0.3941252 0.98680073 -0.49531794 -0.24601479 -0.1636344 0.67914164 0.15538135 0.12312206 -0.16583392 -0.15122235 0.06189169 -0.29264346 -0.50719136 0.3325851 0.35386005 0.63127536 -0.7693983 -0.15849505 0.7417106 0.07951446 0.48475978 0.24143356 -0.027927553 -0.2091374 0.54290485 -0.029460719 0.0057069156 0.3063164 0.5306759 -0.06725477 0.5359765 0.07055307 0.44507912 0.05419063 0.0089265155 0.41843334 0.30317855 0.1632489 -0.2745755 0.15755145 0.070888445 0.39770314 -0.036380112 -0.40901163 -0.29781485 0.51555616 0.14762376 0.27821833 -0.099519685 0.3644913 0.26797506 0.061975807 -0.24850062 0.341002 0.4755437 0.33949688 0.21724463 0.22077224 0.43310633 -0.27678886 0.12028717 0.001924791 0.1663405 0.3170608 -0.3909491 -0.00056331354 0.2997445 0.41783315 0.5088952 -0.81322396 -0.56812507 0.11104813 -0.20859516 -0.19659637 0.24223003 -0.16792847 -0.3329899 0.27342203 -0.21901128 0.16499992 -0.42113304 0.19227591 -0.7929383 0.12735872 -0.997451 -0.0031667808 -0.76857066 0.30921757 -0.35734728 0.05651763 -0.22623743 0.05110089 0.16115017 -0.09332161 -0.79930115 0.34240344 -0.45818004 -0.015256446 -0.05207644 -0.0091632465 -0.6600647 0.06206343 0.16958794 -0.048378445 -0.78331625 0.24768205 0.5573533 -1.3124915 0.47771165 0.11385836 0.23220874 0.044409264 0.25415832 -0.047966886 0.048871495 0.36797273 -0.13239002 -0.05011233 -0.035316303 0.103027575 -0.09080294 0.21688229 0.069488846 0.060514938 0.3812668 -0.0032403844 -0.58768916 0.17120491 0.24760492 0.09512908 0.1883259 -0.096094005 -0.76953006 -0.4635255 -0.409185 0.06440542 -0.65284926 -0.025071053 -0.01755225 -0.41763142 -0.18173502 0.31333566 -0.19103529 -0.07286246 -0.27905816 0.10984753 -0.40502644 0.20764282 -0.43414208 -0.42039883 0.069806114 0.3367614 -0.9084055 -0.16407967 0.096545115 0.13789676 -0.23226428 0.03810748 -0.1699211 -0.7061292 -0.27756274 0.36817375 0.21565408 0.068628974 0.25636715 0.0023810526 -0.15310013 0.082376905 -0.09677332 -0.56875235 0.14178051 0.263427 -0.30729342 0.17448354 0.10116583 -0.00588821 0.27517143 -0.05797864 -0.17538786 -0.036620937 0.2584347 0.22612703 0.19801196 -0.094226345 0.11178475 0.1707505 -0.2016856 0.08239335 0.39431635 0.06266288 -0.085534506 0.101287246 0.36988565 0.5223103 -0.16602232 0.3916527 -0.072039485 -0.26450974 0.41192785 -0.014424109 0.37971336 -0.038940012 -0.0326782 0.26759237 -0.104090445 0.06590433 -0.71811676 -0.21772932 0.4113448 -0.30863875 -0.11187408 0.46442375 0.2651359 -0.09893125 -0.0368077 -0.18237168 -0.1461602 -0.04074737 -0.23648402 0.11029561 -0.17962082 -0.507717 -0.13455649 -0.16321836 0.029896157 -0.21137753 0.18046221 0.014764745 0.1795235 -0.20169361 0.26066592 0.28969982 -0.0800368 0.2299246 0.038851738 -0.10517658 -0.70209 0.33947214 0.034582306 -0.12010684 0.23456405 0.08778821 -0.045798954 0.33501372 0.03260675 -0.13111874 0.26255998 0.20358665 0.29215187 0.12616357 -0.13870595 -0.23431192 -0.0006261093 0.021111794 -0.62398654 0.219229 -0.009771645 -0.16880383 -0.12227321 0.26009843 0.07094036 -0.1891726 -0.32506585 -0.008840689 0.04719488 0.122288115 -0.28795916 -0.31725675 0.012439033 -0.26743156 0.22217357 0.20470834 -0.040746976 0.05254344 0.24867341 0.036739368 -0.19753213 -0.14738373 -0.17829713 0.042899024 -0.40965393 0.19962765 0.060507115 0.22800975 -0.12135943 -0.54209286 0.11568667 -0.13987525 -0.03909453 -0.2943701 -0.1318354 -0.111963354 -0.056640796 0.084603935 -0.32501718 -0.0031952793 0.28690782 -0.3829827 0.10429479 0.18297341 0.24869373 0.0021165125 0.23231678 -0.12757847 0.1288955 0.009469967 0.30473626 0.019435551 0.42946604 0.19039232 0.07760787 0.013103886 -0.27190357 0.104368925 0.19796422 0.24144086 -0.11423969 -0.105731525 -0.638974 0.2447846 0.04023084 0.12209546 0.28943148 -0.3283682 0.39802638 -0.46183568 -0.05233859 -0.20141043 0.20007534 0.21372694 -0.10061784 0.4498285 0.22953682 -0.3951812 0.27090845 0.04092645 0.51391494 -0.0075830184 0.0062146424 -0.086168826 -0.4277516 0.097139016 0.06883289 0.05373928 0.14445737 0.08956609 0.17227401 -0.30531058 0.12728721 0.13678074 0.20500915 0.3469132 0.18537064 0.05536402 0.05599068 -0.7974258 -0.43105942 -0.08536728 0.2993212 -0.33600372 0.097029336 -0.29878682 -0.5692714 -0.7523162 -0.018947352 0.4636911 0.16949184 -0.044505436 0.0052119093 0.17374773 0.13592684 0.11572757 0.2018253 -0.105177574 0.58029944 0.07082435 0.2651971 -0.26487118 0.32069176 -0.06946125 -0.063226774 0.10632969 -0.0013017092 -0.37814385 0.33041698 0.33424166 -0.2414027 -1.6021006 0.3071132 -0.12334295 0.054297272 0.23069279 -0.013964181 0.0016583691 0.11064242 -0.5789754 -0.14845814 -0.14165682 0.3751597 0.13378736 0.3106734 0.33828428 0.19816194 0.26825526 0.035802297 -0.8589179 -0.52629036 -0.24864773 -1.0512624 0.31324416 0.19322512 0.34146297 0.33524814 -0.49474633 0.060758095 -0.10235244 -0.34326404 0.15881291 0.27645728 0.08156379 0.09516282 0.060686078 0.25763637 0.20528992 -0.0401364 0.04507003 0.14854291 -0.06670845 0.07813542 0.047534935 -0.3821227 -0.7036223 0.11362207 0.08054596 0.27939633 -0.16730128 0.39970323 0.120068885 0.64258575 0.48035908 -0.012929297 0.057006627 -0.13224655 0.14891419 -0.05274528 -0.0038550012 -0.0012476426 0.017302772 0.09773045 -0.47192815 -0.29794908 -0.09974717 -0.13162565 -0.043100197 0.22883497 -0.20034339 -0.02234734 0.130506 -0.18308663 0.2806371 -0.04318828 -0.6293238 -0.98675317 -0.57750416 0.32949454 -0.5591365 -0.028358836 -1.0995342 -0.085838735 0.57610154 -0.13151088 0.20791127 -0.16567902 0.12075646 0.011510528 0.08011199 -0.53608924 0.67644083 0.20750338 0.30742303 -0.0037532987 0.3233548 0.18656762 -0.2466374 0.41896105 0.04557865 -0.11343508 -0.47128496 0.21464966 -0.59158194 0.1062484 0.3878566 -0.34967697 0.26652688 0.05879498 0.08958979 0.18714632 -0.094846845 0.1797877 0.034245536 -0.46507728 0.25930312 -0.21949166 -0.72420824 0.1874904 -0.11975085 0.43227738 0.25148952 0.2793708 -0.23051955 0.19159162 0.107577 0.8604916 -0.94977206 0.27353367 -0.3690195 0.16816673 -0.804334 -0.1014596 -0.081149206 0.4230445 -0.24274242 -0.78559256 0.6178536 -0.012449702 0.31756023 -0.37980494 -0.4778268 1.0812984 0.49721366 -0.5849314 -0.37866476 -1.6400061 0.40603802 0.79737705 -0.501352 0.08518597 0.38763827 -0.4610099 -0.3049758 -0.5741488 0.2428167 -0.9075146 0.40195698 -0.8726332 0.6089578 0.25704566 0.40373397 -0.04792075 -0.5486483 0.11123258 0.40396863 -0.40331155 0.5157831 0.026446346 -0.30800617 0.09428563 -0.11921308 -0.31369725 0.14334309 -0.04877329 -0.41692618 -0.748926 0.6656216 0.5643996 -0.061715603 -0.2757085 0.08748623 0.67387235 0.055330794 0.5099427 0.36964425 -0.062240817 0.2911608 0.34576565 -0.19044085 -0.06620157 -1.0044956 -0.31180683 -0.11189027 0.20944564 0.09392365 0.50640136 0.24600852 0.018152913 0.12647948 -0.04181431 -0.2284112 0.110687666 0.22753076 -0.0005497982 -0.22530927 -0.1876443 -0.05825357 0.24504557 0.036441922 0.1529346 -0.43905246 -0.045507424 0.10689199 0.15033704 -0.7828615 0.15283385 0.3364584 0.08377436 -0.4336084 -0.100292385 0.368848 0.070942506 -0.7583302 0.06327991 -0.24495417 0.04618499 0.22644097 -0.277604 0.28288722 0.16122504 0.50954354 -0.24195264 -0.19941455 -0.1349639 0.50885475 0.43370727 -0.03138761 0.22521701 0.24979842 0.18423235 0.012367163 0.060542107 0.27284673 -0.40173072 -0.3802006 -0.17497762 -0.25970176 0.14145762 0.16765684 0.5931546 -0.53957874 -0.19147444 0.012315743 -0.008675547 0.32659686 0.3046838 0.2266127 0.5555452 0.1634181 0.11267286 -0.20944378 0.28408587 -0.4777542 -0.15345441 0.19341676 0.5253626 0.4622267 -0.7486837 -0.5968253 -0.17540067 0.3808776 0.038727414 -0.36517477 0.25311354 -0.031813424 0.16491078 -0.28842655 -0.07353802 0.04938261 -0.12684451 -0.463777 -0.3653578 -0.30537382 -0.16568567 0.39484426 0.07598204 0.007553415 0.0920153 -0.42648837 -0.21889777 -0.009283364 0.15458065 0.22287923 -0.05624715 0.16784346 0.12532343 -0.65862036 0.6954903 -0.5951665 -0.09810925 -0.13515984 -0.23490626 0.0032114822 0.06892855 0.20914178 0.21178065 0.3317038 -0.28628206 -0.31643987 0.14870083 -0.06350975 -0.015897077 -0.12270436 -0.3638106 -0.08591416 -0.59114456 0.2134133 0.14353555 -0.14544778 0.35226798 0.08091094 0.38592482 -0.15133049 -0.043577626 -0.14970987 0.2773603 0.01935273 -0.21117072 0.28849193 0.6745528 -0.06950701 0.2451646 0.027878532 0.05410573 0.32052025 0.13207605 0.29771438 -0.2850508 0.37185776 0.093305655 0.13627332 -0.28817484 0.51295376 0.06720315 -0.5645949 -0.26652023 -0.24081491 -0.30037758 0.19160013 0.12727486 0.18597776 0.35314545 -0.13568449 -0.35254803 -0.17597485 0.5420284 0.037361674 -0.19542806 -0.2932674 -0.54654455 -0.109331384 0.10679203 -0.07215657 -0.2010279 -0.081344135 -0.16043198 -0.4047117 -0.270601 0.27119994 -0.017925028 -0.18535142 0.022541672 0.3837003 0.4422249 0.33574352 0.30832797 -0.5354845 -0.2600405 0.18964553 -0.47215688 -0.3268395 -0.17608824 0.24646926 -0.27220777 0.10142583 0.09446515 0.095302165 0.21482717 0.20860489 -0.45000893 0.40368608 0.01604516 -0.54433537 -0.19136643 0.27188113 0.120780215 0.25958225 0.4305787 -0.25427032 0.34013915 0.20534629 -0.5818061 -0.37190998 0.121887304 0.39732426 -0.31517276 -0.071589015 0.26242152 0.17131472 0.21391284 -0.28157893 0.22967109 0.018126737 -0.33432406 -0.11841385 -0.05652544 -0.017416012 0.08710344 0.3990092 0.16950211 0.19411379 0.0004907364 0.22114886 -0.16822952 -0.0743601 -0.08578436 -0.22482683 0.26255006 -0.2131349 0.36026782 0.40352112 0.12775354 0.044898707 -0.11826547 0.4570654 0.17519495 0.48391762 -0.10204688 0.032914855 -0.26571244 0.023511315 0.41113093 -0.43844503 -0.2385318 0.0046790787 -0.101445116 0.0928856 0.17893851 -0.27407634 0.19163232 0.09898756 0.2011487 0.064462796 0.22108272 0.14214931 0.16707076 0.22847128 0.27764267 -0.03631856 0.088365264 0.10677493 -0.19608757 0.09165427 0.016954044 -0.25303906 0.56164503 0.022127235 0.17624688 0.023231853 0.056465235 -0.021356137 0.033385403 -0.1373709 0.2926225 0.033158787 0.47029242 0.35872328 0.5519557 -0.25248435 0.03647937 -0.2265796 0.28624645 0.13241449 0.08154248 -0.23990922 -0.009230767 0.1905829 0.1745493 0.5402127 0.44407678 0.4606443 0.15259473 0.13601297 0.06533818 0.026147882 -0.38166916 -0.052714303 -0.2474873 -0.08210014 -0.05435183 -0.18236095 0.043980863 -0.018218968 0.20989685 -0.013664863 0.32048425 -0.11058695 -0.11033405 -0.93553305 0.96403027 -1.3762995 1.2274631 1.3828152 -1.4677035 -0.7324952 0.6765098 1.3599713 -1.6248178 -0.9997516 0.9965958 1.6267301 -1.516159 -1.1513705 0.7176399 0.52923954 -0.32817674 -0.6573477 1.1648004 0.63455003 -0.7376975 0.23512582 -0.5932299 -1.7670543 1.4921243 -0.9020317 0.835778 1.5094552 -1.7597798 0.8882894 -0.7764855 0.98645073 -0.90528333 -1.513299 1.5858058 -0.9815446 0.81008404 1.3345627 -1.2891445 1.5282536 -1.6762518 1.4178331 -1.8883958 -2.4710298 2.2522416 1.408803 -1.649231 1.4026861 -1.0922452 -2.1045098 2.12921 -0.44600418 0.59817225 0.51795703 -0.6594839 1.0126156 -1.2346964 0.62608856 -0.3777168 -1.9993211 2.1097252 1.6034969 -1.70846 -1.0809066 0.78424966 1.8640188 -1.5343707 -1.8392682 1.7919446 -0.5191342 0.6511627 -1.3363049 1.5612988 1.0262014 -0.9020724 0.44401464 -0.82590187 -0.70154285 0.4114435 1.1709545 -1.3300263 0.9092974 -0.86690044 -1.0231758 0.93283933 1.407232 -1.1550704 3.1223264 -3.348676 -1.1915202 1.0661856 1.8743975 -1.918083 0.8405047 -0.75475115 -1.1980665 1.2168841 0.4371089 -0.48288676 0.7600295 -0.54660076 1.1661927 -1.4780287 -1.2519562 0.8331533 -2.5363066 2.4432194 0.91537213 -0.6698669 0.8673741 -1.1659522 1.0708921 -1.3301975 -0.81650186 1.0472444 -0.88647264 0.44970536 -0.85849506 0.84871656 2.0889108 -1.7701757 0.9271263 -1.1592168 -0.93411696 0.8388463 -0.82706094 0.8411278 -0.051146854 0.05114692 