0.16019256 -0.12939288 -0.08994602 0.48695537 0.18715428 0.014881842 0.28803724 -0.39040595 0.12389106 0.1493154 0.3323459 -0.361299 -0.17281601 -0.52299106 0.15505366 -0.4381239 -0.10370672 -0.3425127 -0.043860227 -0.53665584 -0.031166501 0.08038962 -0.29247937 -0.19510797 -0.054740757 -0.16812456 0.111294374 0.41135934 -0.2521935 0.3120771 -0.3481121 -0.12967557 0.4893881 -0.29448447 0.070308104 0.26799557 0.10765209 -0.34747347 -0.046999913 -0.19877023 -0.042244427 0.20906857 0.12234152 0.25015503 -0.12934284 -0.12426492 -0.21886341 0.4767535 -0.14010541 -0.37346828 0.058256567 -0.32760134 -0.16587806 0.30812576 0.16524684 0.4833493 0.24676272 0.15742756 -0.39417726 0.062669754 -0.059106853 0.22530048 -0.08947282 -0.1691756 0.07260866 -0.19672999 -0.42047793 0.25534323 -0.18419203 -0.3271449 0.37260842 -0.1842352 -0.34549633 0.17199664 0.15873928 0.18532658 0.011761198 -0.37477225 0.032110922 -0.12520835 0.09322423 -0.4137448 -0.45048958 -0.23332646 -0.2024524 -0.09057134 0.20279005 -0.16174477 0.052121557 0.09160368 0.24038649 -0.24775417 -0.14359118 0.40710226 -0.05298105 -0.033197656 0.33718595 0.02159378 0.2544092 0.16940902 -0.13128512 -0.28247577 0.08594473 0.22209713 -0.22523324 -0.43156847 -0.03623197 -0.119251646 -0.108195655 0.4213294 -0.19291584 -0.23745804 0.33288535 0.484481 0.11581184 0.010567937 -0.07612988 -0.2564898 0.19242872 0.14195675 -0.1115223 0.15534638 -0.18039721 -0.27995315 -0.3091029 -0.059147947 -0.169048 -0.5466221 -0.03446433 -0.34413075 -0.42068154 0.26945236 0.12603025 -0.12767145 0.11986237 0.22224852 -0.2182536 -0.010878078 0.07232606 -0.13623372 0.086063676 0.13185132 -0.17116793 -0.0912258 0.08143338 -0.20053288 -0.23056526 -0.25899306 -0.021894805 0.2168149 -0.28982505 0.16773202 -0.34957308 0.0320394 0.1889901 -0.23845245 0.12231882 0.28306556 0.19500966 -0.23192504 -0.27271557 -0.1800889 -0.2864804 0.3281791 -0.006394486 0.36350745 -0.21573743 -0.07484976 -0.17345698 0.43865246 -0.19196583 -0.36587515 0.23131466 0.23726693 0.40101504 0.25541863 -0.37773252 0.09716558 0.11524377 -0.30286252 0.24588107 0.007718388 -0.2287955 -0.46887788 0.08239304 -0.5436974 0.26315904 0.29252338 0.13158756 0.47530788 0.030703621 -0.23094626 -0.041167285 0.21727642 0.39028975 0.15746337 -0.42473742 -0.12493605 0.07605453 0.015949292 0.15012185 -0.16929144 -0.30076155 -0.4758786 0.016175257 -0.036302183 -0.05786953 -0.11442212 -0.34472728 -0.22001302 0.37052125 0.24784197 0.25294802 -0.35016546 0.0039118356 -0.26396954 0.2590947 -0.4613791 0.305165 0.31664613 0.036369696 0.34375232 -0.17288123 0.16758531 0.029116424 -0.39336324 -0.070337825 -0.2800847 -0.1932871 0.019918445 0.0042794505 0.10056389 0.037374314 -0.47602418 0.39467987 0.30092177 -0.119894564 -0.3456648 0.035139516 0.07704457 0.038235925 -0.11226171 0.14207542 0.0030973072 -0.1651999 0.20508797 0.23112845 0.33854303 0.09059661 0.33077818 -0.32953486 0.08209419 -0.1365871 0.35062996 0.33985874 -0.35974416 -0.38009062 -0.1924457 -0.2464036 0.29550847 0.28902748 -0.20700456 0.2625597 0.01013172 -0.1450734 -0.11908171 -0.3307484 -0.4013151 -0.13540542 -0.07051974 0.19297954 -0.09984515 -0.48199564 0.05793939 0.2792326 -0.19077429 0.1920202 0.26213622 -0.16109774 -0.31624067 0.035938278 -0.24949108 -0.19299439 0.23156904 0.15271851 -0.15555283 -0.08946187 0.2107396 0.5431828 0.069250286 0.021608567 0.1356927 0.27591586 0.28479418 -0.11908788 -0.37756118 -0.45459974 -0.22080572 0.3731397 -0.20515928 -0.09991531 -0.35422873 -0.09412858 -0.01685328 0.26417604 -0.58820933 -0.38974476 -0.4916907 -0.30541548 0.35335997 -0.31181565 0.50549346 -0.52720064 0.30133402 0.103873126 0.18180744 0.32910934 -0.34910277 0.14627013 -0.09549187 -0.21401684 0.18004802 0.40208033 0.3389614 -0.28758153 0.42805117 0.27415398 0.2840851 0.11534302 -0.16036834 -0.10945741 -0.007383105 0.16531903 0.18823391 0.30376112 -0.21757402 0.23507139 0.27388215 0.34218448 0.47977412 0.044791743 0.18818049 -0.010783455 -0.53949386 0.17066169 -0.07554317 0.44911072 0.2957574 0.20469257 -0.3250368 0.13152786 -0.08004301 -0.5160146 0.3770617 -0.08326566 -0.016947908 -0.20229022 0.10612973 0.2101655 0.18883424 -0.18870102 -0.1483841 -0.21402645 -0.22248459 -0.14093289 0.021754 0.274958 0.05211181 -0.43435866 0.061212827 0.18476334 0.35646513 -0.33969182 -0.40528715 -0.17000817 0.020302009 -0.15417764 0.16933538 -0.10349732 -0.091708235 -0.078391105 0.49790487 -0.029849118 -0.38278648 -0.1453164 0.13379818 -0.31581968 0.23873997 0.16163646 -0.0354413 0.16561317 -0.5456323 -0.056189742 0.49313456 0.010600709 -0.0007737206 -0.10365085 -0.555279 -0.2432272 0.22985001 -0.014446864 0.15017572 0.17833868 -0.5390276 -0.24581079 -0.0049088197 -0.09197821 -0.18407488 -0.06788747 -0.52209115 0.36565593 0.49848577 0.26859918 0.044139706 -0.090992846 0.45506734 0.13439365 0.13200274 0.108358376 0.10098526 0.13319974 0.098830126 0.18925196 0.11871301 0.029568829 0.20975074 0.123516046 0.14986803 -0.12535618 0.1849514 0.12958653 0.028841143 0.18627474 0.2044402 0.182565 0.2629219 -0.011992652 -0.038894292 -0.006025379 0.14729406 0.050585214 0.199081 0.21383998 0.14245738 -0.11155905 0.18490043 0.0055571664 0.07982618 0.2126939 -0.34920686 0.26727855 0.33746144 -0.17054947 0.24873547 -0.39984852 0.033120304 0.08662851 0.10500587 0.32550648 0.03772608 -0.38893783 0.3009678 0.109431565 0.23561758 -0.22015125 0.034550466 -0.34470156 -0.42743394 -0.054082338 0.16785409 -0.008602883 -0.19301297 -0.09143245 0.046011318 0.46097812 0.30321112 -0.309227 -0.18039103 -0.11765162 0.12142489 0.53386116 0.23313738 -0.08238642 -0.028259313 -0.24043971 0.3080431 0.025669632 0.11050787 -0.3663185 0.50590384 0.16301835 -0.3506903 0.4369602 0.017617691 -0.0845839 -0.06407325 -0.2666652 0.383581 0.3097178 -0.117586285 0.07005803 0.07265138 0.27008575 0.1812602 -0.38069868 -0.018220808 -0.5125805 -0.45067075 -0.11729513 0.3183156 0.00794239 -0.32335618 -0.34218317 0.18095815 -0.28981173 -0.21757564 -0.032847114 0.5280214 -0.08011704 0.2167998 -0.10011793 -0.02115506 0.4934495 0.21121126 0.3279028 -0.3031798 0.5005745 0.596746 0.37830913 -0.32293907 0.17368163 0.3584183 0.23761848 0.5382057 0.012872398 -0.31794533 0.47887704 0.07956687 -0.13309336 -0.06746365 -0.036823545 0.4130148 -0.060395412 -0.39030924 -0.049056478 0.05526465 -0.22692251 0.03737566 0.3480139 0.032317325 -0.15407792 -0.065463945 -0.2190721 0.104081325 -0.20685734 -0.12699613 -0.36777315 0.36030516 0.13858669 -0.46148446 0.17795987 0.50393474 0.030247213 0.16806372 0.08344676 -0.06722064 0.021005461 -0.03139091 0.43892306 -0.20803532 0.08837566 -0.027430719 -0.25640896 0.258816 0.35201037 -0.13379933 0.21469295 0.38748574 0.1086275 -0.054553103 -0.10685705 0.5319006 -0.09846078 0.375707 -0.41806507 -0.05480434 -0.18197015 -0.2341552 0.029328702 0.46705773 0.18004587 -0.032987103 -0.073643215 0.226551 0.041635975 0.10184058 0.2887788 0.35202226 0.3451402 0.22796369 -0.5875729 0.5365702 -0.31043276 -0.03400231 -0.20123707 0.30730078 0.6228648 0.02748892 -0.27809766 -0.09401112 -0.19154488 0.280698 -0.052295152 0.16650312 0.023930466 -0.3037517 0.4539039 0.16594079 -0.30546215 0.06548086 0.046888545 -0.037428986 -0.18750416 0.18027338 0.046004917 0.4170345 0.15244275 0.36257416 0.32700473 -0.21221094 0.5575468 -0.27386507 0.2557067 -0.19792388 0.27526426 0.3927635 -0.3675857 0.4065109 -0.20322299 -0.2410554 -0.08959841 0.010971826 -0.21726517 -0.37274528 -0.07049633 0.4431958 0.35706338 0.20195137 0.101923816 -0.052966394 0.4824926 0.2989016 -0.075971656 0.29600257 0.2308933 0.18011492 -0.38322586 0.14742187 0.5060971 0.4102444 -0.11668753 0.06969471 0.5508487 0.19195977 -0.1878787 0.43356538 0.2738714 0.14017831 -0.20215964 -0.019813541 -0.123715 0.10598842 -0.22572891 0.1325657 -0.20750506 -0.1694251 -0.2770282 -0.21761687 -0.04688498 -0.15258239 0.37247947 0.16241296 0.050221056 -0.12622014 0.1743681 0.0065359552 0.52545893 0.3556961 -0.08905264 0.041515175 -0.073519684 -0.27460974 0.25396365 0.23871832 -0.1820125 -0.2820653 0.20955446 -0.11052267 0.32787636 0.22663386 -0.02146215 0.08857317 -0.098080605 0.38569778 0.14820337 0.13999566 0.12462999 0.11798716 0.018404763 0.119168475 0.22716704 0.13787423 -0.03748889 -0.20454825 0.50244516 0.4674442 0.28218868 -0.3183406 0.3716235 -0.6906136 -0.04443023 0.2831956 -0.98244673 0.03580859 0.0621433 0.49247086 -0.18551093 -0.6103609 0.8147862 0.5835891 0.30760852 0.3779113 -0.8199632 0.2909693 -0.7046028 -0.09847831 -0.021971319 0.1102773 -0.11449407 