-0.31040022 0.57613957 -0.030485552 -0.22921264 0.05787545 -0.06086936 0.21911828 -0.15899421 0.5766963 -0.54153174 -0.27747524 -0.24429439 0.07850462 0.22059335 -0.15705189 0.09088217 0.09859894 0.51656336 0.115699135 0.4286474 0.36368182 0.3003826 -0.34567046 0.18539917 -0.12781003 0.236736 -0.0022935928 -0.4193376 0.51706153 0.23798631 -0.20488413 -0.03539206 0.30241892 0.37432986 -0.50722736 0.24119979 -0.36827224 -0.31952298 -0.26295233 -0.15246743 -0.22358125 0.38258815 0.056068245 0.15416735 0.24918015 0.55387425 0.13855831 -0.2110956 -0.21005641 0.27693298 -0.26453498 -0.06832709 0.2009093 0.19649853 -0.5038964 0.5956647 -0.45755875 0.18434854 0.40158576 0.23806126 0.2566165 0.3821303 0.1737894 -0.110202454 -0.4459967 0.4069843 0.485336 -0.31745827 0.42015353 -0.074991584 0.44536707 -0.6334212 -0.24837351 -0.05660355 -0.18159097 -0.08423968 -0.122802846 0.53245354 0.41652814 0.1672545 0.15877393 0.02657215 -0.2043085 0.2444974 -0.20752807 0.39269042 -0.18941912 -0.35383567 0.21669464 -0.39305502 0.20855354 0.35527012 0.19254768 -0.08280855 -0.08711847 0.073479444 0.43221536 -0.07281166 -0.17509325 0.13290125 -0.18790609 -0.41955793 0.55910987 -0.40857944 0.38461518 0.4946725 0.1722073 0.5364438 -0.4769077 0.3782581 0.26180887 -0.13262968 0.20277883 -0.105123736 -0.35228658 0.43371856 0.34479544 0.13377763 0.27900258 -0.584433 -0.35212946 -0.142961 -0.29251215 -0.14170738 -0.3370495 -0.24182169 -0.12415929 -0.7439267 0.41328117 -0.26730353 -0.04123325 -0.0965253 -0.21045361 0.18522158 -0.5661869 0.106533736 0.14019895 0.19209036 0.012955911 0.03186384 -0.2813093 -0.119524434 0.15451047 -0.29160413 -0.44457382 -0.25477368 0.5294817 -0.4243653 0.08329776 -0.36320144 0.5156573 -0.29234597 -0.00048312783 0.36472866 -0.21977688 0.23798098 -0.59980667 0.004746923 0.46427923 0.32759324 0.09647129 -0.06474812 0.040461138 0.010043134 -0.39829636 0.20300213 -0.08503055 0.25653726 0.13014193 -0.47372228 -0.21369109 -0.21384144 0.4172112 -0.20404418 -0.036787808 -0.1110759 0.35246724 -0.31686166 -0.30861628 0.22280112 0.6268704 -0.18626747 -0.41531685 0.40912893 -0.45857486 -0.03964722 -0.22110595 0.30603608 -0.07390611 -0.17144077 0.2305487 0.14263245 -0.12419986 -0.052487537 -0.23581731 -0.054518007 -0.032788582 -0.03426993 0.20955545 -0.19399202 0.38110512 0.40507045 0.20806025 0.4679862 0.28889242 -0.6803867 -0.11733913 -0.024257053 -0.21942814 -0.2995311 0.31115574 0.26546127 0.29084393 -0.4636472 0.048904385 -0.31926864 0.17355436 0.5392122 0.33328295 -0.25324965 -0.0402456 0.2905532 0.24309613 0.069368206 -0.43340307 -0.3522694 0.31579074 -0.3184205 0.39143485 0.28588098 -0.4805927 -0.32866627 0.20072165 -0.4894835 0.43938825 -0.16751747 0.16138075 0.20031752 -0.43045092 -0.1742553 -0.05251986 0.15359026 -0.5590448 0.45323008 0.4142345 0.049871676 -0.33353668 -0.022817636 -0.6293037 -0.57101333 -0.24723876 0.70209676 -0.4534608 0.31972444 0.4877608 -0.52317876 -0.11906265 -0.066626884 -0.49887824 -0.3190601 0.23378745 -0.17804366 -0.57025385 0.30535147 0.06706218 -0.3583448 0.24903722 -0.29408526 -0.3006059 -0.29076236 -0.48987317 -0.20646179 -0.14716262 -0.2505498 0.3866745 -0.6748436 0.357531 -0.12266679 -0.56030446 0.31759784 -0.18113998 -0.0036037646 0.0740125 0.03883613 0.027724385 -0.5273341 0.35608327 -0.09255405 0.42891553 -0.14084268 0.29714713 -0.39125866 -0.10277905 -0.3836713 0.09766292 -0.3496051 -0.28627017 -0.37878522 -0.21973728 0.4773492 0.4320148 -0.026410088 0.35362622 0.60652846 -0.09147628 -0.08416918 0.7759676 -0.24844079 0.1705593 0.18232803 -0.1947957 0.07275899 0.017090978 0.17548531 0.43364906 -0.26355383 -0.18611227 -0.28212807 -0.13658068 0.15093192 -0.07262394 -0.027925864 0.4658311 0.27686474 0.09246761 0.032926023 0.14161898 0.50461316 0.25083777 0.49956423 0.24871548 0.1335452 0.34084272 -0.029603679 0.12941013 0.11532382 0.23575564 -0.055582006 0.1962586 -0.06387062 -0.23549955 -0.16232087 -0.538882 -0.5305861 -0.12111585 0.044132233 0.27483055 -0.22844847 -0.020479618 0.17774649 0.45464304 -0.45413995 -0.4290099 -0.15927194 -0.30365488 -0.36805516 -0.18646736 -0.13256851 0.11073559 -0.30733216 -0.113442495 0.33495754 0.59000367 -0.463252 0.1717378 0.33666167 0.37500784 0.2146143 -0.15254363 0.22518116 0.19750428 -0.28695026 -0.8145792 -0.15035476 0.759895 0.004860931 -0.23025897 0.5312448 0.5383379 0.21477318 0.18958375 -0.31415817 -0.14843477 0.40697527 -0.4151457 0.012885741 -0.11384447 -0.273456 -0.35891518 -0.064203545 -0.19481574 -0.16983952 -0.077917576 -0.023408461 0.54876745 0.48987758 -0.39848933 0.13228159 -0.33732 0.2666701 -0.065862946 0.57778716 -0.053355064 0.32546705 -0.111661516 -0.17815237 -0.22407034 -0.1282518 -0.06892911 0.003737569 0.3843275 0.28834447 0.3200216 -0.21957104 -0.2908453 0.20019874 0.10619591 0.65765756 0.413426 0.10798184 -0.37696588 0.07188853 0.5889561 -0.22990619 -0.30346045 0.32807422 -0.22498877 0.17224924 0.041777097 -0.12026137 0.584137 -0.26388273 -0.3662696 -0.1913324 0.019612808 -0.14534241 0.59832543 0.112424895 0.08789478 0.05419973 0.38454348 -0.1973363 -0.035334025 -0.36824954 -0.15090758 -0.005563381 0.42485502 -0.058265515 -0.12760217 0.020373764 -0.035519492 0.10011738 0.49686477 0.10260141 0.3763141 -0.3184779 0.4621406 0.69435054 -0.5133534 -0.19539171 0.25491077 0.13737825 -0.24825665 0.41521075 0.22463422 -0.2805459 0.607073 0.3756396 -0.3497304 0.49361154 0.09640508 -0.38245028 -0.46732703 0.17446317 0.22567175 0.63666284 -0.22948861 0.12293384 0.18596041 0.40288284 -0.35246095 -0.24394804 0.23277698 0.40208545 0.3610424 -0.15505672 0.0205014 0.4738453 -0.14302333 0.20236573 -0.21561772 0.3002488 -0.09433376 0.3642638 0.23164508 -0.3780147 -0.03445564 0.15974559 0.3187024 -0.21096449 -0.30217168 -0.071556516 0.06122442 0.29644105 -0.43839225 -0.04905875 0.4790361 0.42555797 0.110683866 -0.36806175 -0.3636978 -0.39797616 -0.120327264 0.30938724 -0.049325027 0.542503 0.25061038 0.60781026 0.05395167 -0.068706214 -0.32590172 -0.34499374 -0.19715469 0.4468106 0.31193733 -0.20281515 0.0064597405 -0.0047688847 -0.22663869 0.32071453 -0.37871146 0.27421233 0.39107177 0.24873951 0.0041388497 0.46440017 -0.21637599 0.40293923 0.34542322 -0.2119126 -0.3213965 0.6740304 -0.1344627 -0.0028797085 -0.13224727 -0.20556197 0.36787012 0.07199892 -0.39321572 -0.2989914 -0.40714318 0.6003825 -0.21577165 -0.16340628 -0.19963585 -0.010399219 0.40877357 -0.23956679 -0.14126477 0.5086229 0.50762635 -0.01856157 0.046432026 0.03267057 -0.15322033 0.31726602 0.28802297 0.0321117 0.349709 0.06528509 0.3163387 -0.20518279 0.6212036 -0.22218193 -0.079761125 -0.16489905 -0.022682857 -0.017042316 -0.17812608 0.12382295 0.40995836 0.64229935 0.23186685 0.24159901 0.06096537 0.16256326 -0.44681358 0.19342549 -0.21476555 0.45136893 -0.13251185 -0.20270391 0.48927757 -0.21432766 0.15225804 -0.56298256 0.332156 -0.14527664 -0.22434807 -0.117617466 0.1930817 0.31200558 0.14390218 0.24390061 -0.156128 -0.1096501 0.05146355 -0.1607624 0.31710204 -0.30626008 -0.5099025 0.44056454 -0.14953262 0.3532426 0.25888395 0.05162554 0.19559292 0.5382952 0.076751284 0.26693037 -0.25395605 0.15053129 0.18448693 0.3031144 0.26549217 0.019079542 0.00019452075 -0.3552103 -0.40377557 -0.20947053 0.03425294 0.4963866 0.2918571 -0.36471966 0.32407835 0.112344705 0.1137959 -0.071557865 -0.40735587 -0.39124358 0.12349831 0.06659002 -0.11302601 0.06340117 0.42115298 0.02262548 -0.0035754684 0.25315678 0.2947599 0.35206127 -0.016260423 0.09867334 0.33677444 -0.07412389 -0.076929905 -0.13994126 0.6552704 0.6722495 -0.13231026 -0.5433408 0.71000874 0.010959169 -0.28413907 -0.30269358 -0.26680958 -0.11324252 0.2089032 0.08234942 0.5591522 0.33341694 -0.4842935 -0.1589293 0.65892446 0.33166796 -0.1931601 -0.7381155 0.5109293 -0.5971129 0.6254542 -0.3361255 -0.27032235 0.08094553 0.0855253 0.15349959 -0.37872663 0.376928 0.46361053 -0.5988969 0.19235276 0.12247929 0.2947941 -0.49385798 -0.38757804 0.15620822 0.48882073 0.54394025 -0.02911501 0.22485855 -0.7180572 0.40754214 0.25228965 0.35802293 -0.3614128 0.32700714 0.6558622 -0.03813618 -0.17116286 0.1104829 -0.5056269 -0.2968271 -0.08982408 0.25475052 -0.09341038 -0.2563585 0.47310883 0.25324863 -0.6589693 -0.37500864 0.5063809 -0.24451847 0.6980549 -0.30743703 -0.31571257 0.0478273 0.43082544 0.37175998 0.52484035 0.34523356 0.47694165 0.20285445 0.16848496 -0.06114734 -0.7092585 -0.18893012 0.3257181 0.197167 -0.7227875 0.1601874 -0.14979267 -0.2718242 0.022688922 0.14556858 -0.34143662 0.33679858 -0.5638181 0.30995908 0.02399344 0.21044682 0.3854245 -0.15156858 0.5047127 -0.43788844 0.20896104 0.7517788 -0.07463476 -0.45812708 0.21682099 0.09467805 -0.59496874 0.6711617 0.18980566 -0.27485764 0.07522789 0.5010555 -0.24770556 -0.068106815 -0.21259159 -0.0871662 0.6624911 -0.45588893 0.27552438 0.26117435 0.048276857 0.4031339 -0.12705627 0.06986373 0.4330443 0.67058384 -0.101051114 -0.06699539 -0.42351133 0.0034990245 0.2137527 0.08246702 -0.5156591 -0.09747691 0.6046411 -0.39199045 -0.68625164 0.19821699 0.118511826 0.0702141 -0.1076534 -0.5010235 0.5559023 -0.20835601 0.11309235 -0.2311539 0.45769805 -0.14267407 -0.49770015 0.14388582 0.25657955 0.29964912 -0.36428407 0.48686752 -0.22117825 0.3116581 -0.28419906 -0.06941704 -0.113737546 -0.0048724804 0.06969613 0.4347422 0.02157928 0.066404335 -0.24939814 0.20982942 -1.1216093 -0.3368797 -0.7229278 0.5625458 0.25176537 -0.49529183 0.4356496 0.17886585 0.68230605 -0.17007309 0.010120876 0.08971218 -0.9567001 -0.70323986 0.18962172 -0.4315151 -0.7359118 0.3710091 -0.5481643 0.576499 -0.44315523 -0.3512671 0.13983764 -0.3367817 -0.22912642 -0.9577423 -0.124391 0.47799715 0.39795017 -0.24126633 0.5394344 -0.53271943 0.6166821 0.004762829 -0.5599901 -0.23038006 -0.68831664 0.60953814 -0.48407963 0.17711708 0.18257158 0.1489809 -0.0851476 -0.1429224 0.38685375 0.12569821 -0.7067889 -0.39159197 -0.23962316 0.76341516 -0.40965697 -0.51864856 -0.12409559 -0.27159628 -0.36254764 -0.33954072 0.34814218 0.068276174 0.83224285 0.45385772 0.0965655 0.38813147 0.7910891 -0.16898164 0.09066808 -0.42552254 -0.82290566 -0.3163027 -0.4731983 -0.12039984 -0.07594057 -0.15226828 0.008668375 0.45185253 